{"levels": [{"inputCount": 9, "outputCount": 6, "inputs": [0.06875134449477645, 0.01970611672747588, 0.021788058127654285, 0.021788058127654285, 0.02803413439596163, 0.021788058127654285, 0.29725720655130017, 0.01970611672747588, 0.01650154937658813], "outputs": [0, 1, 0, 0, 0, 0], "biases": [0.6963009359757835, 0.045389921378442555, 0.5191970594912299, 0.2002036245265919, 0.2802941132195016, 0.6201261476895161], "weights": [[0.5398766276879252, -0.32367527138105756, 0.3240115011515512, 0.6586644234868135, -0.6324921903353757, 0.7188742264077694], [-0.29759865483273273, -0.6575400521827541, 0.5485152158949496, -0.16588492034857172, -0.4257909410664089, 0.23715736038766866], [0.8615749328796534, 0.2795441888205379, 0.8271257825569214, -0.02287727494627112, -0.15644673412448684, 0.6956881116429847], [0.7240246773667371, 0.37486658710106746, 0.25004435837584627, 0.9342869299199579, -0.06206980547302643, 0.506513834076626], [-0.2866591539600978, 0.32830886138385185, -0.7783699192338056, 0.023103953487840778, -0.028340202080196608, 0.21980113356837072], [0.10920591753715092, 0.684028123824272, -0.5597938892020047, 0.1481598000313007, 0.8436528285311307, -0.4864284544380728], [-0.10238017538754218, 0.8391229841291059, 0.8583102118398163, 0.26121270718672673, -0.77126863672321, 0.08070462894120434], [0.9540062907796678, -0.5621565231975194, 0.07549900715832858, 0.2649441036966447, 0.8035828009162997, 0.550728958281663], [-0.45227576858028606, -0.37103951880995134, 0.6749053969437557, -0.6909980023200692, -0.426057778243778, -0.11842332860743632]]}, {"inputCount": 6, "outputCount": 4, "inputs": [0, 1, 0, 0, 0, 0], "outputs": [1, 0, 1, 0], "biases": [-0.4956534972981932, -0.6273959542435728, -0.22780173815543692, -0.233798035886986], "weights": [[-0.6423998321750961, -0.6166803059605339, -0.5204549224569706, 0.37933680258770286], [0.6571879619776602, -0.6552171917560048, 0.19430917517623159, -0.4394692575697836], [0.6092051011569328, 0.30129009933766127, -0.34979812293652124, 0.14098533849102934], [-0.4118863633881904, -0.6882359808664815, 0.22836788897213345, -0.10860015959137126], [-0.9491406826205027, 0.05060136085589684, -0.6443404266642145, 0.46076313705761307], [0.36940576998708785, 0.31462874859778456, -0.9899798983387309, -0.6488721297271549]]}]}